[[-7.47142278e-19 -2.00000000e+00 -1.00000000e+00 -1.86425104e-19
  -5.92884072e-21 -3.27153924e-19  1.00000000e+00 -2.00000000e+00
  -1.00000000e+00 -1.00000000e+00 -2.00000000e+00]
 [-2.00000000e+00 -6.55904055e-31 -1.17852571e-39  1.00000000e+00
  -1.00000000e+00  1.00000000e+00 -1.00000000e+00 -1.00000000e+00
  -3.79090309e-30 -2.00000000e+00  1.00000000e+00]
 [-4.20778946e+03 -3.65428122e+02 -9.04937930e+01 -1.10876617e+03
  -4.20954381e+01 -1.73106193e+03 -6.55456463e+03 -5.04718743e+02
  -1.69123283e+03 -3.19074850e+02 -5.51894376e+03]
 [ 3.26900000e+03  3.36250000e+02  9.25000000e+01  7.72500000e+02
   4.02500000e+01  3.44800000e+03  9.97500000e+03  3.75100750e+02
   1.25775000e+03  2.06500000e+02  3.59525000e+03]
 [-1.31647268e+05 -8.21445704e+03 -4.80010398e+03 -4.13642949e+04
  -1.43749664e+03 -2.14925247e+05 -1.08454159e+06 -1.52445036e+04
  -4.98439623e+04 -1.02456105e+04 -1.52436379e+05]
 [ 1.79617500e+05  1.28157500e+04  5.52925000e+03  5.53667500e+04
   2.05417500e+03  3.68474000e+05  1.22962400e+06  2.19860685e+04
   7.28637500e+04  1.36535000e+04  2.18487250e+05]
 [-1.02681442e+05 -7.09448984e+03 -3.13390223e+03 -3.17556889e+04
  -1.10115792e+03 -2.45757191e+05 -3.75454849e+05 -1.28152536e+04
  -4.30540549e+04 -7.97706468e+03 -1.35431427e+05]
 [ 4.85410000e+04  2.17412500e+03  2.06350000e+03  1.64100000e+04
   4.30075000e+02  8.07365000e+04  2.00325000e+05  5.37850450e+03
   1.77865000e+04  4.06100000e+03  6.16162500e+04]
 [ 7.11100000e+03  3.44250000e+02  3.34250000e+02  1.67250000e+03
   5.72500000e+01  9.74900000e+03  2.66230000e+04  8.21802250e+02
   2.67325000e+03  6.15750000e+02  9.68900000e+03]
 [-3.61913027e-27 -3.05040980e-28 -2.00000000e+00  1.00000000e+00
   1.00000000e+00 -1.00000000e+00 -4.13614888e-27  1.00000000e+00
  -1.76303346e-27 -2.42998747e-28 -1.00000000e+00]
 [-2.11687186e-20 -2.00000000e+00 -1.00000000e+00 -2.00000000e+00
   1.00000000e+00 -1.00000000e+00 -1.00000000e+00  1.00000000e+00
   1.00000000e+00 -1.00000000e+00  1.00000000e+00]]