{"parameters/conv1.weight": {"_type": "histogram", "values": [6.0, 26.0, 27.0, 31.0, 24.0, 33.0, 28.0, 19.0, 35.0, 27.0, 29.0, 25.0, 25.0, 26.0, 28.0, 28.0, 30.0, 30.0, 24.0, 31.0, 29.0, 27.0, 32.0, 26.0, 21.0, 26.0, 36.0, 27.0, 20.0, 35.0, 26.0, 31.0, 33.0, 33.0, 31.0, 27.0, 19.0, 26.0, 23.0, 31.0, 24.0, 31.0, 28.0, 25.0, 37.0, 36.0, 25.0, 20.0, 30.0, 32.0, 27.0, 29.0, 28.0, 20.0, 22.0, 30.0, 29.0, 25.0, 38.0, 23.0, 26.0, 27.0, 18.0, 7.0], "bins": [-0.16705897450447083, -0.16185110807418823, -0.15664324164390564, -0.15143539011478424, -0.14622752368450165, -0.14101965725421906, -0.13581179082393646, -0.13060392439365387, -0.12539607286453247, -0.12018820643424988, -0.11498034000396729, -0.10977247357368469, -0.1045646071434021, -0.0993567481637001, -0.09414888173341751, -0.08894102275371552, -0.08373315632343292, -0.07852528989315033, -0.07331743091344833, -0.06810956448316574, -0.06290170550346375, -0.05769383907318115, -0.05248597264289856, -0.047278113663196564, -0.04207024723291397, -0.036862388253211975, -0.03165452182292938, -0.02644665539264679, -0.021238788962364197, -0.016030922532081604, -0.010823071002960205, -0.005615204572677612, -0.0004073530435562134, 0.004800513386726379, 0.010008379817008972, 0.015216231346130371, 0.020424097776412964, 0.025631964206695557, 0.03083983063697815, 0.03604769706726074, 0.04125555604696274, 0.04646342247724533, 0.05167128145694733, 0.05687914788722992, 0.06208701431751251, 0.06729487329721451, 0.0725027397274971, 0.0777105987071991, 0.08291846513748169, 0.08812633156776428, 0.09333419054746628, 0.09854205697774887, 0.10374991595745087, 0.10895778238773346, 0.11416564881801605, 0.11937351524829865, 0.12458137422800064, 0.12978923320770264, 0.13499709963798523, 0.14020496606826782, 0.14541283249855042, 0.150620698928833, 0.1558285504579544, 0.161036416888237, 0.1662442833185196]}, "_timestamp": 1701708864.5825276, "parameters/conv1.bias": {"_type": "histogram", "values": [2.0, 0.0, 0.0, 4.0, 1.0, 1.0, 0.0, 3.0, 2.0, 1.0, 0.0, 1.0, 1.0, 0.0, 0.0, 2.0, 1.0, 4.0, 0.0, 1.0, 0.0, 1.0, 1.0, 2.0, 0.0, 1.0, 1.0, 0.0, 3.0, 0.0, 1.0, 2.0, 1.0, 0.0, 1.0, 0.0, 0.0, 2.0, 0.0, 1.0, 1.0, 2.0, 1.0, 1.0, 1.0, 1.0, 3.0, 0.0, 1.0, 0.0, 0.0, 1.0, 2.0, 0.0, 1.0, 2.0, 1.0, 0.0, 0.0, 1.0, 1.0, 1.0, 0.0, 2.0], "bins": [-0.15829791128635406, -0.1532132923603058, -0.1481286883354187, -0.14304406940937042, -0.13795946538448334, -0.13287484645843506, -0.12779024243354797, -0.1227056235074997, -0.11762100458145142, -0.11253640055656433, -0.10745178163051605, -0.10236717015504837, -0.09728255867958069, -0.092197947204113, -0.08711332827806473, -0.08202871680259705, -0.07694410532712936, -0.07185949385166168, -0.066774882376194, -0.06169026345014572, -0.05660565197467804, -0.05152104049921036, -0.046436429023742676, -0.041351817548274994, -0.03626720607280731, -0.031182587146759033, -0.026097983121871948, -0.02101336419582367, -0.01592874526977539, -0.010844141244888306, -0.005759522318840027, -0.0006749182939529419, 0.004409700632095337, 0.009494319558143616, 0.0145789235830307, 0.01966354250907898, 0.024748146533966064, 0.029832765460014343, 0.03491738438606262, 0.04000198841094971, 0.045086607336997986, 0.05017121881246567, 0.05525583028793335, 0.06034044176340103, 0.06542505323886871, 0.0705096647143364, 0.07559428364038467, 0.08067889511585236, 0.08576350659132004, 0.09084811806678772, 0.0959327295422554, 0.10101734846830368, 0.10610195994377136, 0.11118657141923904, 0.11627118289470673, 0.121355801820755, 0.1264404058456421, 0.13152502477169037, 0.13660964369773865, 0.14169424772262573, 0.146778866648674, 0.1518634706735611, 0.15694808959960938, 0.16203269362449646, 0.16711731255054474]}, "parameters/conv2.weight": {"_type": "histogram", "values": [3.0, 6.0, 17.0, 63.0, 479.0, 652.0, 700.0, 755.0, 666.0, 663.0, 724.0, 679.0, 689.0, 698.0, 730.0, 700.0, 685.0, 748.0, 762.0, 740.0, 671.0, 746.0, 741.0, 682.0, 717.0, 677.0, 749.0, 758.0, 739.0, 728.0, 730.0, 714.0, 733.0, 721.0, 746.0, 712.0, 765.0, 739.0, 745.0, 745.0, 736.0, 766.0, 706.0, 725.0, 707.0, 692.0, 716.0, 749.0, 716.0, 708.0, 774.0, 732.0, 755.0, 721.0, 633.0, 181.0, 73.0, 30.0, 12.0, 5.0, 2.0, 5.0, 1.0, 2.0], "bins": [-0.040626876056194305, -0.039257749915122986, -0.03788862004876137, -0.03651949390769005, -0.03515036404132843, -0.03378123790025711, -0.03241211175918579, -0.031042983755469322, -0.029673855751752853, -0.028304727748036385, -0.026935599744319916, -0.025566473603248596, -0.024197345599532127, -0.02282821759581566, -0.02145909145474434, -0.02008996345102787, -0.0187208354473114, -0.017351707443594933, -0.015982579439878464, -0.014613453298807144, -0.013244325295090675, -0.011875197291374207, -0.010506071150302887, -0.009136941283941269, -0.007767815142869949, -0.00639868900179863, -0.005029559135437012, -0.003660432994365692, -0.0022913068532943726, -0.0009221769869327545, 0.00044694915413856506, 0.001816079020500183, 0.0031852051615715027, 0.004554331302642822, 0.00592346116900444, 0.00729258731007576, 0.008661717176437378, 0.010030843317508698, 0.011399969458580017, 0.012769099324941635, 0.014138225466012955, 0.015507351607084274, 0.016876481473445892, 0.018245607614517212, 0.01961473561823368, 0.02098386362195015, 0.02235298976302147, 0.023722117766737938, 0.025091245770454407, 0.026460373774170876, 0.027829501777887344, 0.029198627918958664, 0.030567755922675133, 0.0319368839263916, 0.03330601006746292, 0.03467513620853424, 0.03604426607489586, 0.03741339594125748, 0.038782522082328796, 0.040151648223400116, 0.041520774364471436, 0.042889904230833054, 0.04425903037190437, 0.04562816023826599, 0.04699728637933731]}, "parameters/conv2.bias": {"_type": "histogram", "values": [1.0, 0.0, 2.0, 1.0, 1.0, 0.0, 4.0, 1.0, 2.0, 1.0, 1.0, 1.0, 1.0, 2.0, 0.0, 2.0, 1.0, 0.0, 2.0, 1.0, 1.0, 0.0, 3.0, 0.0, 0.0, 1.0, 0.0, 1.0, 0.0, 0.0, 1.0, 3.0, 1.0, 0.0, 2.0, 0.0, 1.0, 0.0, 3.0, 2.0, 0.0, 2.0, 3.0, 0.0, 1.0, 1.0, 0.0, 0.0, 3.0, 0.0, 1.0, 1.0, 0.0, 3.0, 0.0, 1.0, 1.0, 2.0, 0.0, 0.0, 0.0, 1.0, 0.0, 1.0], "bins": [-0.03282950818538666, -0.03165626898407936, -0.030483031645417213, -0.029309794306755066, -0.02813655510544777, -0.026963315904140472, -0.025790078565478325, -0.024616841226816177, -0.02344360202550888, -0.022270362824201584, -0.021097125485539436, -0.01992388814687729, -0.018750648945569992, -0.017577409744262695, -0.016404172405600548, -0.0152309350669384, -0.014057695865631104, -0.012884456664323807, -0.01171121932566166, -0.010537981986999512, -0.009364742785692215, -0.008191503584384918, -0.007018266245722771, -0.005845028907060623, -0.004671789705753326, -0.0034985505044460297, -0.002325313165783882, -0.0011520758271217346, 2.1163374185562134e-05, 0.0011944025754928589, 0.002367638051509857, 0.003540877252817154, 0.004714116454124451, 0.0058873556554317474, 0.007060594856739044, 0.008233830332756042, 0.00940706953406334, 0.010580308735370636, 0.011753546074032784, 0.012926783412694931, 0.014100022614002228, 0.015273261815309525, 0.016446499153971672, 0.01761973649263382, 0.018792975693941116, 0.019966214895248413, 0.02113945223391056, 0.022312689572572708, 0.023485928773880005, 0.0246591679751873, 0.02583240531384945, 0.027005642652511597, 0.028178881853818893, 0.02935212105512619, 0.030525358393788338, 0.031698595732450485, 0.03287183493375778, 0.03404507413506508, 0.035218313336372375, 0.036391548812389374, 0.03756478801369667, 0.03873802721500397, 0.039911262691020966, 0.04108450189232826, 0.04225774109363556]}, "parameters/fc1.weight": {"_type": "histogram", "values": [5.0, 14.0, 22.0, 49.0, 75.0, 131.0, 265.0, 437.0, 766.0, 1569.0, 2897.0, 6778.0, 144606.0, 286687.0, 293113.0, 296660.0, 299330.0, 299266.0, 300148.0, 300619.0, 301289.0, 302228.0, 302430.0, 302304.0, 302446.0, 302862.0, 303640.0, 301858.0, 300902.0, 302340.0, 302500.0, 302119.0, 302730.0, 302589.0, 302359.0, 301989.0, 301146.0, 299876.0, 298808.0, 292977.0, 88627.0, 13565.0, 7840.0, 4954.0, 3182.0, 2296.0, 1642.0, 1132.0, 807.0, 556.0, 407.0, 248.0, 178.0, 131.0, 75.0, 57.0, 30.0, 22.0, 14.0, 10.0, 3.0, 2.0, 0.0, 1.0], "bins": [-0.006216697860509157, -0.00598116684705019, -0.0057456353679299355, -0.005510104354470968, -0.005274573341012001, -0.0050390418618917465, -0.004803510848432779, -0.004567979834973812, -0.004332448355853558, -0.004096916876733303, -0.003861385863274336, -0.0036258548498153687, -0.003390323603525758, -0.003154792357236147, -0.0029192613437771797, -0.002683730097487569, -0.002448198851197958, -0.002212667837738991, -0.0019771363586187363, -0.001741605345159769, -0.0015060738660395145, -0.0012705428525805473, -0.0010350118391215801, -0.0007994803600013256, -0.0005639493465423584, -0.0003284183330833912, -9.288685396313667e-05, 0.00014264415949583054, 0.00037817517295479774, 0.0006137066520750523, 0.0008492376655340195, 0.001084769144654274, 0.0013203006237745285, 0.0015558316372334957, 0.0017913631163537502, 0.0020268941298127174, 0.002262425608932972, 0.002497956622391939, 0.0027334876358509064, 0.002969019114971161, 0.003204550128430128, 0.0034400811418890953, 0.00367561262100935, 0.003911143634468317, 0.004146674647927284, 0.004382206127047539, 0.004617737140506506, 0.0048532686196267605, 0.005088799633085728, 0.005324331112205982, 0.005559862125664949, 0.005795393139123917, 0.006030924618244171, 0.006266455631703138, 0.0065019866451621056, 0.00673751812428236, 0.006973049137741327, 0.0072085801512002945, 0.007444111630320549, 0.007679642643779516, 0.007915173657238483, 0.008150705136358738, 0.008386236615478992, 0.008621767163276672, 0.008857298642396927]}, "parameters/fc1.bias": {"_type": "histogram", "values": [5.0, 6.0, 4.0, 5.0, 7.0, 8.0, 13.0, 4.0, 6.0, 9.0, 1.0, 8.0, 9.0, 6.0, 5.0, 8.0, 4.0, 0.0, 1.0, 0.0, 2.0, 1.0, 5.0, 1.0, 2.0, 1.0, 0.0, 0.0, 3.0, 0.0, 1.0, 0.0, 0.0, 0.0, 0.0, 0.0, 0.0, 1.0, 0.0, 0.0, 0.0, 0.0, 0.0, 0.0, 0.0, 0.0, 0.0, 0.0, 0.0, 0.0, 0.0, 0.0, 0.0, 0.0, 0.0, 0.0, 0.0, 0.0, 0.0, 0.0, 0.0, 0.0, 1.0, 1.0], "bins": [-0.003386924508959055, -0.0030061258003115654, -0.002625327091664076, -0.0022445281501859426, -0.001863729441538453, -0.0014829307328909636, -0.0011021317914128304, -0.0007213330827653408, -0.00034053437411785126, 4.026433452963829e-05, 0.00042106304317712784, 0.0008018617518246174, 0.0011826609261333942, 0.0015634596347808838, 0.0019442583434283733, 0.002325057052075863, 0.0027058557607233524, 0.003086654469370842, 0.0034674531780183315, 0.003848251886665821, 0.004229050595313311, 0.0046098497696220875, 0.00499064801260829, 0.005371447186917067, 0.005752246361225843, 0.006133044604212046, 0.0065138437785208225, 0.006894642021507025, 0.007275441195815802, 0.007656239438802004, 0.008037038147449493, 0.00841783732175827, 0.008798636496067047, 0.009179435670375824, 0.009560233913362026, 0.009941033087670803, 0.010321831330657005, 0.010702630504965782, 0.011083428747951984, 0.011464227922260761, 0.011845026165246964, 0.01222582533955574, 0.012606624513864517, 0.01298742275685072, 0.013368221931159496, 0.013749020174145699, 0.014129819348454475, 0.014510618522763252, 0.014891416765749454, 0.015272215008735657, 0.015653014183044434, 0.01603381335735321, 0.016414612531661987, 0.016795411705970764, 0.017176209017634392, 0.01755700819194317, 0.017937807366251945, 0.018318604677915573, 0.01869940385222435, 0.019080203026533127, 0.019461002200841904, 0.01984180137515068, 0.020222598686814308, 0.020603397861123085, 0.020984197035431862]}, "parameters/fc2.weight": {"_type": "histogram", "values": [1.0, 2.0, 0.0, 0.0, 7.0, 12.0, 18.0, 46.0, 165.0, 2018.0, 2258.0, 2156.0, 2291.0, 2285.0, 2305.0, 2430.0, 2333.0, 2513.0, 2415.0, 2369.0, 2351.0, 2279.0, 2447.0, 2477.0, 2510.0, 2500.0, 2491.0, 2454.0, 2422.0, 2475.0, 2388.0, 2324.0, 2426.0, 2454.0, 2341.0, 2488.0, 2452.0, 2413.0, 2491.0, 2375.0, 2536.0, 2439.0, 2383.0, 2458.0, 2368.0, 2438.0, 2369.0, 2331.0, 2398.0, 2278.0, 1426.0, 234.0, 154.0, 136.0, 81.0, 50.0, 32.0, 21.0, 16.0, 9.0, 4.0, 4.0, 4.0, 1.0], "bins": [-0.105780690908432, -0.10223080217838287, -0.09868092089891434, -0.0951310396194458, -0.09158115088939667, -0.08803126215934753, -0.084481380879879, -0.08093149960041046, -0.07738161087036133, -0.0738317221403122, -0.07028184086084366, -0.06673195958137512, -0.06318207085132599, -0.059632185846567154, -0.05608230084180832, -0.052532415837049484, -0.04898253083229065, -0.045432645827531815, -0.04188276082277298, -0.03833287954330444, -0.03478299081325531, -0.031233102083206177, -0.02768322080373764, -0.024133339524269104, -0.02058345079421997, -0.017033562064170837, -0.013483680784702301, -0.009933799505233765, -0.006383910775184631, -0.002834022045135498, 0.0007158592343330383, 0.004265740513801575, 0.007815621793270111, 0.011365510523319244, 0.01491539180278778, 0.018465273082256317, 0.02201516181230545, 0.025565050542354584, 0.02911493182182312, 0.032664813101291656, 0.03621470183134079, 0.03976459056138992, 0.04331447184085846, 0.046864353120326996, 0.05041424185037613, 0.05396413058042526, 0.0575140118598938, 0.061063896864652634, 0.06461378186941147, 0.06816366314888, 0.07171355187892914, 0.07526344060897827, 0.07881332188844681, 0.08236320316791534, 0.08591309189796448, 0.08946298062801361, 0.09301286190748215, 0.09656274318695068, 0.10011263191699982, 0.10366252064704895, 0.10721240192651749, 0.11076228320598602, 0.11431217193603516, 0.11786206066608429, 0.12141194194555283]}, "parameters/fc2.bias": {"_type": "histogram", "values": [4.0, 1.0, 1.0, 6.0, 8.0, 9.0, 16.0, 10.0, 17.0, 10.0, 13.0, 16.0, 18.0, 12.0, 11.0, 10.0, 12.0, 11.0, 22.0, 21.0, 13.0, 12.0, 11.0, 15.0, 16.0, 19.0, 14.0, 16.0, 15.0, 19.0, 9.0, 12.0, 15.0, 17.0, 15.0, 17.0, 9.0, 12.0, 14.0, 16.0, 15.0, 13.0, 13.0, 11.0, 17.0, 14.0, 13.0, 12.0, 13.0, 21.0, 13.0, 10.0, 11.0, 16.0, 13.0, 16.0, 7.0, 17.0, 7.0, 7.0, 3.0, 5.0, 2.0, 1.0], "bins": [-0.06340556591749191, -0.06087518483400345, -0.058344803750514984, -0.05581442266702652, -0.053284041583538055, -0.05075366050004959, -0.04822327941656113, -0.04569289833307266, -0.0431625172495842, -0.040632136166095734, -0.03810175508260727, -0.035571373999118805, -0.03304099291563034, -0.030510611832141876, -0.027980230748653412, -0.025449849665164948, -0.022919468581676483, -0.02038908749818802, -0.017858706414699554, -0.01532832533121109, -0.012797944247722626, -0.010267563164234161, -0.007737182080745697, -0.005206800997257233, -0.0026764199137687683, -0.00014603883028030396, 0.0023843422532081604, 0.004914723336696625, 0.007445104420185089, 0.009975485503673553, 0.012505866587162018, 0.015036247670650482, 0.01756662130355835, 0.020097002387046814, 0.02262738347053528, 0.025157764554023743, 0.027688145637512207, 0.03021852672100067, 0.032748907804489136, 0.0352792888879776, 0.037809669971466064, 0.04034005105495453, 0.04287043213844299, 0.04540081322193146, 0.04793119430541992, 0.050461575388908386, 0.05299195647239685, 0.055522337555885315, 0.05805271863937378, 0.060583099722862244, 0.06311348080635071, 0.06564386188983917, 0.06817424297332764, 0.0707046240568161, 0.07323500514030457, 0.07576538622379303, 0.0782957673072815, 0.08082614839076996, 0.08335652947425842, 0.08588691055774689, 0.08841729164123535, 0.09094767272472382, 0.09347805380821228, 0.09600843489170074, 0.09853881597518921]}, "gradients/fc2.bias": {"_type": "histogram", "values": [2.0, 2.0, 0.0, 3.0, 1.0, 4.0, 3.0, 1.0, 3.0, 4.0, 5.0, 2.0, 7.0, 12.0, 7.0, 11.0, 16.0, 14.0, 18.0, 17.0, 19.0, 20.0, 16.0, 28.0, 17.0, 21.0, 29.0, 25.0, 20.0, 28.0, 31.0, 24.0, 31.0, 32.0, 25.0, 28.0, 24.0, 33.0, 26.0, 19.0, 16.0, 24.0, 15.0, 17.0, 13.0, 13.0, 10.0, 7.0, 5.0, 8.0, 5.0, 2.0, 3.0, 5.0, 3.0, 3.0, 1.0, 1.0, 1.0, 0.0, 0.0, 2.0, 1.0, 1.0], "bins": [-0.00017266671056859195, -0.00016542918456252664, -0.0001581916440045461, -0.0001509541179984808, -0.00014371657744050026, -0.00013647905143443495, -0.00012924152542836964, -0.0001220039848703891, -0.0001147664588643238, -0.00010752892558230087, -0.00010029139230027795, -9.305385901825503e-05, -8.58163257362321e-05, -7.857879245420918e-05, -7.134126644814387e-05, -6.410373316612095e-05, -5.686619988409802e-05, -4.96286666020751e-05, -4.239114059600979e-05, -3.5153600038029253e-05, -2.7916074031963944e-05, -2.0678533473983407e-05, -1.3441007467918098e-05, -6.203481461852789e-06, 1.0340590961277485e-06, 8.271585102193058e-06, 1.5509125660173595e-05, 2.2746651666238904e-05, 2.9984177672304213e-05, 3.722171823028475e-05, 4.445924423635006e-05, 5.16967847943306e-05, 5.8934310800395906e-05, 6.617183680646122e-05, 7.340937736444175e-05, 8.064690337050706e-05, 8.78844439284876e-05, 9.512196993455291e-05, 0.00010235949594061822, 0.00010959703649859875, 0.00011683456250466406, 0.0001240721030626446, 0.0001313096290687099, 0.00013854715507477522, 0.00014578469563275576, 0.00015302222163882107, 0.0001602597621968016, 0.0001674972882028669, 0.00017473482876084745, 0.00018197235476691276, 0.00018920988077297807, 0.0001964474213309586, 0.00020368494733702391, 0.00021092247334308922, 0.00021816001390106976, 0.0002253975544590503, 0.0002326350804651156, 0.00023987260647118092, 0.00024711014702916145, 0.000254347687587142, 0.00026158519904129207, 0.0002688227395992726, 0.00027606028015725315, 0.0002832977916114032, 0.00029053533216938376]}, "gradients/fc2.weight": {"_type": "histogram", "values": [2.0, 1.0, 1.0, 1.0, 0.0, 5.0, 3.0, 6.0, 3.0, 7.0, 6.0, 5.0, 11.0, 11.0, 10.0, 21.0, 18.0, 34.0, 37.0, 49.0, 100.0, 137.0, 210.0, 336.0, 609.0, 1030.0, 2493.0, 83163.0, 3655.0, 2342.0, 1636.0, 1197.0, 874.0, 581.0, 383.0, 292.0, 198.0, 152.0, 106.0, 113.0, 84.0, 59.0, 65.0, 47.0, 37.0, 31.0, 27.0, 28.0, 25.0, 18.0, 12.0, 20.0, 9.0, 10.0, 9.0, 7.0, 5.0, 9.0, 2.0, 2.0, 4.0, 0.0, 0.0, 4.0], "bins": [-0.001265339320525527, -0.0012189820408821106, -0.0011726247612386942, -0.0011262674815952778, -0.0010799102019518614, -0.001033552922308445, -0.0009871956426650286, -0.0009408383630216122, -0.0008944810833781958, -0.0008481238037347794, -0.000801766524091363, -0.0007554092444479465, -0.0007090519648045301, -0.0006626946851611137, -0.0006163374055176973, -0.0005699801258742809, -0.0005236228462308645, -0.0004772655665874481, -0.0004309082869440317, -0.0003845510073006153, -0.0003381937276571989, -0.0002918364480137825, -0.0002454791683703661, -0.0001991218887269497, -0.0001527646090835333, -0.00010640732944011688, -6.005004979670048e-05, -1.3692770153284073e-05, 3.266450949013233e-05, 7.902178913354874e-05, 0.00012537906877696514, 0.00017173634842038155, 0.00021809362806379795, 0.00026445090770721436, 0.00031080818735063076, 0.00035716546699404716, 0.00040352274663746357, 0.00044988002628088, 0.0004962373059242964, 0.0005425945855677128, 0.0005889518652111292, 0.0006353091448545456, 0.000681666424497962, 0.0007280237041413784, 0.0007743809837847948, 0.0008207382634282112, 0.0008670955430716276, 0.000913452822715044, 0.0009598101023584604, 0.0010061673820018768, 0.0010525246616452932, 0.0010988819412887096, 0.001145239220932126, 0.0011915965005755424, 0.0012379537802189589, 0.0012843110598623753, 0.0013306683395057917, 0.001377025619149208, 0.0014233828987926245, 0.0014697401784360409, 0.0015160974580794573, 0.0015624547377228737, 0.00160881201736629, 0.0016551692970097065, 0.001701526576653123]}, "gradients/fc1.bias": {"_type": "histogram", "values": [1.0, 0.0, 0.0, 0.0, 0.0, 0.0, 0.0, 0.0, 0.0, 0.0, 1.0, 1.0, 0.0, 1.0, 1.0, 0.0, 0.0, 1.0, 0.0, 1.0, 1.0, 0.0, 1.0, 0.0, 3.0, 93.0, 2.0, 1.0, 2.0, 1.0, 1.0, 0.0, 0.0, 1.0, 0.0, 1.0, 0.0, 0.0, 0.0, 1.0, 2.0, 2.0, 0.0, 1.0, 0.0, 2.0, 1.0, 1.0, 0.0, 0.0, 1.0, 0.0, 0.0, 0.0, 0.0, 1.0, 0.0, 0.0, 0.0, 0.0, 0.0, 0.0, 1.0, 1.0], "bins": [-0.0006623851950280368, -0.0006367104942910373, -0.0006110357353463769, -0.0005853610346093774, -0.0005596863338723779, -0.0005340115749277174, -0.0005083368741907179, -0.00048266214434988797, -0.000456987414509058, -0.00043131268466822803, -0.00040563795482739806, -0.00037996325409039855, -0.0003542885242495686, -0.0003286137944087386, -0.0003029390936717391, -0.00027726436383090913, -0.00025158963399007916, -0.0002259149041492492, -0.00020024017430841923, -0.00017456547357141972, -0.0001488907146267593, -0.00012321601388975978, -9.754131315276027e-05, -7.186655420809984e-05, -4.619185347110033e-05, -2.051715273410082e-05, 5.1576062105596066e-06, 3.083230694755912e-05, 5.650700768455863e-05, 8.218176662921906e-05, 0.00010785646736621857, 0.000133531226310879, 0.00015920598525553942, 0.00018488068599253893, 0.00021055544493719935, 0.00023623014567419887, 0.0002619049046188593, 0.0002875796053558588, 0.0003132543060928583, 0.00033892906503751874, 0.00036460376577451825, 0.00039027846651151776, 0.0004159532254561782, 0.0004416279261931777, 0.0004673026269301772, 0.0004929773858748376, 0.0005186520866118371, 0.0005443268455564976, 0.0005700015462934971, 0.0005956762470304966, 0.000621351005975157, 0.0006470257067121565, 0.000672700465656817, 0.0006983751663938165, 0.000724049867130816, 0.0007497245678678155, 0.0007753993268124759, 0.0008010740857571363, 0.0008267487864941359, 0.0008524234872311354, 0.0008780981879681349, 0.0009037729469127953, 0.0009294476476497948, 0.0009551224065944552, 0.0009807971073314548]}, "gradients/fc1.weight": {"_type": "histogram", "values": [105.0, 178.0, 247.0, 343.0, 484.0, 337.0, 215.0, 620.0, 903.0, 1472.0, 1777.0, 1460.0, 1638.0, 2308.0, 3607.0, 5507.0, 8152.0, 8349.0, 13821.0, 15629.0, 22310.0, 27982.0, 48957.0, 68516.0, 150534.0, 7219631.0, 219821.0, 124553.0, 85705.0, 68601.0, 49345.0, 37176.0, 32125.0, 27812.0, 23209.0, 18903.0, 17926.0, 14818.0, 11180.0, 8717.0, 7756.0, 6364.0, 4486.0, 3893.0, 3324.0, 2913.0, 2504.0, 2317.0, 2006.0, 1531.0, 1358.0, 1024.0, 911.0, 657.0, 510.0, 416.0, 373.0, 320.0, 251.0, 245.0, 201.0, 133.0, 85.0, 57.0], "bins": [-0.0002972488000523299, -0.00028555671451613307, -0.0002738646580837667, -0.00026217257254756987, -0.00025048048701137304, -0.00023878840147517622, -0.00022709633049089462, -0.00021540425950661302, -0.0002037121739704162, -0.00019202008843421936, -0.00018032801744993776, -0.00016863594646565616, -0.00015694386092945933, -0.0001452517753932625, -0.0001335597044089809, -0.0001218676334246993, -0.00011017554788850248, -9.848346235230565e-05, -8.679139136802405e-05, -7.509932038374245e-05, -6.340723484754562e-05, -5.1715149311348796e-05, -4.0023092878982425e-05, -2.8331007342785597e-05, -1.663892180658877e-05, -4.946836270391941e-06, 6.745249265804887e-06, 1.8437305698171258e-05, 3.0129391234368086e-05, 4.1821476770564914e-05, 5.3513533202931285e-05, 6.520561873912811e-05, 7.689770427532494e-05, 8.858978981152177e-05, 0.0001002818753477186, 0.00011197393178008497, 0.0001236660173162818, 0.00013535810285247862, 0.000147050159284845, 0.00015874224482104182, 0.00017043433035723865, 0.00018212641589343548, 0.0001938185014296323, 0.00020551055786199868, 0.0002172026433981955, 0.00022889472893439233, 0.00024058679991867393, 0.00025227887090295553, 0.00026397095643915236, 0.0002756630419753492, 0.00028735509840771556, 0.0002990471839439124, 0.0003107392694801092, 0.00032243135501630604, 0.00033412344055250287, 0.00034581549698486924, 0.00035750758252106607, 0.0003691996680572629, 0.00038089172448962927, 0.0003925838100258261, 0.0004042758955620229, 0.00041596798109821975, 0.0004276600666344166, 0.00043935212306678295, 0.0004510442086029798]}, "gradients/conv2.weight": {"_type": "histogram", "values": [20006.0, 6825.0, 2219.0, 1539.0, 1127.0, 863.0, 753.0, 462.0, 397.0, 385.0, 311.0, 261.0, 214.0, 212.0, 192.0, 137.0, 138.0, 105.0, 94.0, 90.0, 84.0, 88.0, 58.0, 37.0, 19.0, 33.0, 21.0, 18.0, 9.0, 10.0, 19.0, 32.0, 17.0, 10.0, 3.0, 5.0, 4.0, 0.0, 6.0, 8.0, 7.0, 7.0, 5.0, 6.0, 4.0, 0.0, 2.0, 0.0, 4.0, 0.0, 0.0, 0.0, 0.0, 0.0, 0.0, 0.0, 0.0, 1.0, 1.0, 3.0, 3.0, 5.0, 2.0, 3.0], "bins": [-5.3221785492496565e-05, 1.411641642334871e-05, 8.145462197717279e-05, 0.00014879282389301807, 0.00021613102580886334, 0.0002834692131727934, 0.00035080741508863866, 0.00041814561700448394, 0.0004854838189203292, 0.0005528220790438354, 0.0006201602518558502, 0.000687498424667865, 0.0007548366556875408, 0.0008221748867072165, 0.0008895130595192313, 0.0009568512323312461, 0.001024189405143261, 0.0010915276361629367, 0.0011588658671826124, 0.0012262039817869663, 0.001293542212806642, 0.0013608804438263178, 0.0014282185584306717, 0.0014955567894503474, 0.0015628950204700232, 0.0016302332514896989, 0.0016975714825093746, 0.0017649095971137285, 0.0018322478281334043, 0.00189958605915308, 0.001966924173757434, 0.0020342625211924314, 0.0021016006357967854, 0.0021689387504011393, 0.002236277097836137, 0.0023036152124404907, 0.0023709535598754883, 0.002438291674479842, 0.002505629789084196, 0.0025729681365191936, 0.0026403062511235476, 0.0027076443657279015, 0.002774982713162899, 0.002842320827767253, 0.002909658942371607, 0.0029769972898066044, 0.0030443354044109583, 0.003111673519015312, 0.0031790118664503098, 0.0032463502138853073, 0.003313688328489661, 0.003381026443094015, 0.0034483647905290127, 0.0035157029051333666, 0.0035830410197377205, 0.003650379367172718, 0.003717717481777072, 0.003785055596381426, 0.0038523939438164234, 0.003919732291251421, 0.003987070173025131, 0.004054408520460129, 0.004121746867895126, 0.004189084749668837, 0.004256423097103834]}, "gradients/conv2.bias": {"_type": "histogram", "values": [12.0, 4.0, 3.0, 5.0, 2.0, 3.0, 1.0, 1.0, 0.0, 4.0, 2.0, 2.0, 1.0, 2.0, 1.0, 1.0, 1.0, 0.0, 0.0, 2.0, 2.0, 1.0, 1.0, 0.0, 0.0, 1.0, 0.0, 0.0, 1.0, 0.0, 1.0, 0.0, 1.0, 0.0, 1.0, 0.0, 0.0, 0.0, 1.0, 0.0, 1.0, 0.0, 2.0, 1.0, 0.0, 0.0, 0.0, 1.0, 0.0, 0.0, 0.0, 0.0, 0.0, 0.0, 0.0, 0.0, 0.0, 0.0, 0.0, 0.0, 0.0, 0.0, 0.0, 2.0], "bins": [-6.792581552872434e-05, 5.536752723855898e-05, 0.0001786608772817999, 0.00030195422004908323, 0.00042524756281636655, 0.0005485409055836499, 0.0006718342192471027, 0.0007951275329105556, 0.0009184209047816694, 0.001041714334860444, 0.0011650077067315578, 0.0012883009621873498, 0.0014115943340584636, 0.0015348877059295774, 0.0016581809613853693, 0.001781474333256483, 0.0019047677051275969, 0.0020280610769987106, 0.0021513544488698244, 0.002274647820740938, 0.002397941192612052, 0.002521234331652522, 0.002644527703523636, 0.0027678210753947496, 0.0028911144472658634, 0.003014407819136977, 0.003137701191008091, 0.0032609945628792048, 0.003384287701919675, 0.0035075810737907887, 0.0036308744456619024, 0.003754167817533016, 0.0038774609565734863, 0.0040007540956139565, 0.004124047700315714, 0.004247341305017471, 0.0043706344440579414, 0.0044939275830984116, 0.004617220722138882, 0.004740514326840639, 0.0048638079315423965, 0.004987101070582867, 0.005110394209623337, 0.005233687814325094, 0.005356980953365564, 0.005480274558067322, 0.005603567697107792, 0.005726860836148262, 0.0058501544408500195, 0.005973448045551777, 0.006096741184592247, 0.006220034323632717, 0.0063433279283344746, 0.006466621067374945, 0.006589914672076702, 0.006713207811117172, 0.006836500950157642, 0.0069597945548594, 0.00708308769389987, 0.007206381298601627, 0.0073296744376420975, 0.007452968042343855, 0.007576261181384325, 0.0076995547860860825, 0.007822847925126553]}, "gradients/conv1.weight": {"_type": "histogram", "values": [15.0, 16.0, 53.0, 56.0, 110.0, 602.0, 106.0, 45.0, 47.0, 30.0, 11.0, 14.0, 3.0, 13.0, 17.0, 27.0, 32.0, 21.0, 21.0, 35.0, 47.0, 22.0, 22.0, 19.0, 39.0, 37.0, 36.0, 35.0, 38.0, 19.0, 25.0, 15.0, 9.0, 14.0, 16.0, 16.0, 11.0, 7.0, 0.0, 0.0, 0.0, 0.0, 0.0, 0.0, 0.0, 0.0, 0.0, 0.0, 0.0, 0.0, 0.0, 0.0, 0.0, 0.0, 0.0, 1.0, 3.0, 4.0, 1.0, 0.0, 2.0, 5.0, 8.0, 3.0], "bins": [-0.0005190307856537402, -0.00042948551708832383, -0.00033994021941907704, -0.00025039492174983025, -0.0001608496531844139, -7.130438461899757e-05, 1.8240942154079676e-05, 0.00010778621071949601, 0.00019733147928491235, 0.0002868767478503287, 0.000376422016415745, 0.00046596728498116136, 0.0005555126699618995, 0.0006450579385273159, 0.0007346032070927322, 0.0008241484756581485, 0.0009136937442235649, 0.0010032390709966421, 0.0010927843395620584, 0.0011823296081274748, 0.0012718748766928911, 0.0013614201452583075, 0.0014509654138237238, 0.0015405106823891401, 0.0016300561837852001, 0.0017196014523506165, 0.0018091467209160328, 0.0018986919894814491, 0.0019882372580468655, 0.002077782526612282, 0.002167327795177698, 0.0022568730637431145, 0.002346418332308531, 0.002435963600873947, 0.0025255088694393635, 0.00261505413800478, 0.002704599406570196, 0.0027941446751356125, 0.002883689943701029, 0.002973235212266445, 0.0030627804808318615, 0.0031523259822279215, 0.003241871250793338, 0.0033314162865281105, 0.0034209617879241705, 0.003510507056489587, 0.003600052325055003, 0.0036895975936204195, 0.003779142862185836, 0.003868688130751252, 0.003958233632147312, 0.004047778435051441, 0.004137324169278145, 0.004226869437843561, 0.0043164147064089775, 0.004405959974974394, 0.00449550524353981, 0.0045850505121052265, 0.004674595780670643, 0.004764141049236059, 0.0048536863178014755, 0.004943231586366892, 0.005032776854932308, 0.0051223221234977245, 0.005211867392063141]}, "gradients/conv1.bias": {"_type": "histogram", "values": [1.0, 0.0, 3.0, 1.0, 2.0, 3.0, 2.0, 22.0, 2.0, 1.0, 1.0, 2.0, 0.0, 0.0, 1.0, 0.0, 2.0, 0.0, 2.0, 0.0, 0.0, 1.0, 2.0, 2.0, 0.0, 1.0, 2.0, 0.0, 1.0, 2.0, 2.0, 0.0, 0.0, 2.0, 0.0, 1.0, 1.0, 0.0, 1.0, 0.0, 0.0, 0.0, 0.0, 0.0, 0.0, 0.0, 0.0, 0.0, 0.0, 0.0, 0.0, 0.0, 0.0, 0.0, 0.0, 0.0, 0.0, 0.0, 0.0, 0.0, 0.0, 0.0, 0.0, 1.0], "bins": [-0.0012342571280896664, -0.0010683066211640835, -0.0009023561142385006, -0.0007364056073129177, -0.0005704551003873348, -0.00040450459346175194, -0.00023855408653616905, -7.260357961058617e-05, 9.334692731499672e-05, 0.0002592974342405796, 0.0004252479411661625, 0.0005911984480917454, 0.0007571489550173283, 0.0009230994619429111, 0.001089049968868494, 0.001255000475794077, 0.0014209509827196598, 0.0015869014896452427, 0.0017528519965708256, 0.0019188025034964085, 0.0020847530104219913, 0.0022507035173475742, 0.002416654024273157, 0.00258260453119874, 0.002748555038124323, 0.0029145055450499058, 0.0030804560519754887, 0.0032464065589010715, 0.0034123570658266544, 0.0035783075727522373, 0.00374425807967782, 0.003910208586603403, 0.004076158627867699, 0.0042421091347932816, 0.0044080596417188644, 0.004574010148644447, 0.00473996065557003, 0.004905911162495613, 0.005071861669421196, 0.005237812176346779, 0.005403762683272362, 0.005569713190197945, 0.0057356636971235275, 0.00590161420404911, 0.006067564710974693, 0.006233515217900276, 0.006399465724825859, 0.006565416231751442, 0.006731366738677025, 0.006897317245602608, 0.007063267752528191, 0.0072292182594537735, 0.007395168766379356, 0.007561119273304939, 0.007727069780230522, 0.007893020287156105, 0.008058970794081688, 0.00822492130100727, 0.008390871807932854, 0.008556822314858437, 0.00872277282178402, 0.008888723328709602, 0.009054673835635185, 0.009220624342560768, 0.009386574849486351]}, "epoch": 49, "train_loss": 0.026218969006091355, "validation_loss": 0.026083771139383316, "_runtime": 541.6822345256805, "_step": 49, "_wandb": {"runtime": 540}}